{"learner":{"attributes":{"best_iteration":"9","best_score":"0.5138243621286622"},"feature_names":["Type_Cat","Type_Dog","Age","Breed1","Gender_Male","Gender_Female","Color1","Color2","MaturitySize","FurLength","Vaccinated","Sterilized","Health","Fee","PhotoAmt"],"feature_types":["int","int","int","int","int","int","int","int","int","int","int","int","int","int","int"],"gradient_booster":{"model":{"gbtree_model_param":{"num_parallel_tree":"1","num_trees":"10"},"iteration_indptr":[0,1,2,3,4,5,6,7,8,9,10],"tree_info":[0,0,0,0,0,0,0,0,0,0],"trees":[{"base_weights":[7.727233E-2,6.075553E-1,-4.129448E-1,7.2980154E-1,-2.3653892E-1,2.9585865E-1,-8.504226E-1,-1.2370505E0,7.568313E-1,2.7009276E-1,-7.651999E-1,1.8349668E-1,7.2215736E-1,-2.1384747E-1,-1.1075227E0,-1.574715E-1,7.005623E-2,6.4379E-2,9.9327356E-2,-6.579491E-2,5.321349E-2,-4.220658E-2,-1.5014671E-1,3.3601355E-2,-1.9221867E-2,5.5732436E-2,1.1748385E-1,-5.734253E-2,2.7159318E-2,-7.996198E-2,-1.3502447E-1],"categories":[],"categories_nodes":[],"categories_segments":[],"categories_sizes":[],"default_left":[0,0,0,0,0,0,0,0,0,0,0,0,0,0,0,0,0,0,0,0,0,0,0,0,0,0,0,0,0,0,0],"id":0,"left_children":[1,3,5,7,9,11,13,15,17,19,21,23,25,27,29,-1,-1,-1,-1,-1,-1,-1,-1,-1,-1,-1,-1,-1,-1,-1,-1],"loss_changes":[3.890619E2,7.4352936E1,2.4143724E2,3.433319E1,2.4766699E1,1.41219845E1,7.852014E1,6.923229E0,1.5939636E1,1.1916931E1,1.0768921E1,1.3637067E1,3.9517174E0,2.453716E1,2.4519531E1,0E0,0E0,0E0,0E0,0E0,0E0,0E0,0E0,0E0,0E0,0E0,0E0,0E0,0E0,0E0,0E0],"parents":[2147483647,0,0,1,1,2,2,3,3,4,4,5,5,6,6,7,7,8,8,9,9,10,10,11,11,12,12,13,13,14,14],"right_children":[2,4,6,8,10,12,14,16,18,20,22,24,26,28,30,-1,-1,-1,-1,-1,-1,-1,-1,-1,-1,-1,-1,-1,-1,-1,-1],"split_conditions":[4E0,1E0,2.42E2,1E0,4.629E3,2E0,6E0,5E0,5E0,2E0,1E0,1E0,3.7E1,4E0,4.629E3,-1.574715E-1,7.005623E-2,6.4379E-2,9.9327356E-2,-6.579491E-2,5.321349E-2,-4.220658E-2,-1.5014671E-1,3.3601355E-2,-1.9221867E-2,5.5732436E-2,1.1748385E-1,-5.734253E-2,2.7159318E-2,-7.996198E-2,-1.3502447E-1],"split_indices":[2,11,3,14,3,9,2,13,14,14,9,0,2,14,3,0,0,0,0,0,0,0,0,0,0,0,0,0,0,0,0],"split_type":[0,0,0,0,0,0,0,0,0,0,0,0,0,0,0,0,0,0,0,0,0,0,0,0,0,0,0,0,0,0,0],"sum_hessian":[1.4946927E3,7.178898E2,7.768029E2,6.271919E2,9.069786E1,2.9659012E2,4.802128E2,7.895573E0,6.192963E2,4.6563637E1,4.4134228E1,2.3585493E2,6.0735176E1,1.3867865E2,3.4153415E2,6.88332E0,1.0122529E0,4.2150214E2,1.9779422E2,9.920079E0,3.6643555E1,3.1177391E1,1.2956838E1,1.6783154E2,6.80234E1,4.6158733E1,1.4576443E1,7.956308E1,5.911557E1,1.524453E2,1.8908885E2],"tree_param":{"num_deleted":"0","num_feature":"15","num_nodes":"31","size_leaf_vector":"1"}},{"base_weights":[7.1113795E-2,5.632735E-1,-3.6401567E-1,6.803392E-1,-2.1211524E-1,2.7078795E-1,-7.374722E-1,-1.068517E0,7.0637894E-1,2.4650559E-1,-6.7079043E-1,1.6675225E-1,6.747763E-1,-4.098517E-1,-1.1193169E0,-1.3066348E-1,2.9809063E-2,8.04169E-2,4.171052E-2,-5.8241136E-2,4.9219843E-2,-3.7419565E-2,-1.2829529E-1,3.0737096E-2,-1.7178377E-2,5.158749E-2,1.1229893E-1,-7.919041E-2,-7.957343E-3,-3.700111E-2,-1.2169223E-1],"categories":[],"categories_nodes":[],"categories_segments":[],"categories_sizes":[],"default_left":[0,0,0,0,0,0,0,0,0,0,0,0,0,0,0,0,0,0,0,0,0,0,0,0,0,0,0,0,0,0,0],"id":1,"left_children":[1,3,5,7,9,11,13,15,17,19,21,23,25,27,29,-1,-1,-1,-1,-1,-1,-1,-1,-1,-1,-1,-1,-1,-1,-1,-1],"loss_changes":[3.191872E2,6.3624496E1,1.8776202E2,2.8435791E1,1.9622797E1,1.2234655E1,6.1889618E1,3.4209642E0,1.6624146E1,9.855051E0,7.965271E0,1.1237162E1,3.682064E0,3.398351E1,1.633963E1,0E0,0E0,0E0,0E0,0E0,0E0,0E0,0E0,0E0,0E0,0E0,0E0,0E0,0E0,0E0,0E0],"parents":[2147483647,0,0,1,1,2,2,3,3,4,4,5,5,6,6,7,7,8,8,9,9,10,10,11,11,12,12,13,13,14,14],"right_children":[2,4,6,8,10,12,14,16,18,20,22,24,26,28,30,-1,-1,-1,-1,-1,-1,-1,-1,-1,-1,-1,-1,-1,-1,-1,-1],"split_conditions":[4E0,1E0,2.42E2,1E0,4.629E3,2E0,1.2E1,1E0,3E0,2E0,1E0,1E0,3.7E1,1E0,1E0,-1.3066348E-1,2.9809063E-2,8.04169E-2,4.171052E-2,-5.8241136E-2,4.9219843E-2,-3.7419565E-2,-1.2829529E-1,3.0737096E-2,-1.7178377E-2,5.158749E-2,1.1229893E-1,-7.919041E-2,-7.957343E-3,-3.700111E-2,-1.2169223E-1],"split_indices":[2,11,3,14,3,9,2,13,2,14,9,0,2,0,8,0,0,0,0,0,0,0,0,0,0,0,0,0,0,0,0],"split_type":[0,0,0,0,0,0,0,0,0,0,0,0,0,0,0,0,0,0,0,0,0,0,0,0,0,0,0,0,0,0,0],"sum_hessian":[1.4885045E3,6.9834094E2,7.901635E2,6.068442E2,9.149681E1,2.92776E2,4.9738754E2,8.315733E0,5.9852844E2,4.5982414E1,4.5514393E1,2.3394334E2,5.8832676E1,2.688173E2,2.2857024E2,7.1191716E0,1.196561E0,4.459824E2,1.5254604E2,1.0199823E1,3.578259E1,3.1745066E1,1.3769327E1,1.6535245E2,6.859089E1,4.5022243E1,1.3810431E1,1.2399141E2,1.4482588E2,2.6894547E1,2.0167569E2],"tree_param":{"num_deleted":"0","num_feature":"15","num_nodes":"31","size_leaf_vector":"1"}},{"base_weights":[6.536884E-2,5.221731E-1,-3.224966E-1,6.3406175E-1,-1.9084367E-1,2.477495E-1,-6.44895E-1,-9.390023E-1,6.590896E-1,2.249887E-1,-5.9199524E-1,1.5146206E-1,6.3054144E-1,-1.4976722E-1,-8.3469737E-1,-1.1436232E-1,2.840364E-2,5.459963E-2,8.9984275E-2,-5.1772125E-2,4.54917E-2,-4.3904405E-2,-1.7891736E-1,1.8183488E-2,-1.2314037E-1,4.7715556E-2,1.076323E-1,-4.549458E-2,2.7743075E-2,-1.006312E-1,-5.372813E-2],"categories":[],"categories_nodes":[],"categories_segments":[],"categories_sizes":[],"default_left":[0,0,0,0,0,0,0,0,0,0,0,0,0,0,0,0,0,0,0,0,0,0,0,0,0,0,0,0,0,0,0],"id":2,"left_children":[1,3,5,7,9,11,13,15,17,19,21,23,25,27,29,-1,-1,-1,-1,-1,-1,-1,-1,-1,-1,-1,-1,-1,-1,-1,-1],"loss_changes":[2.6249908E2,5.439119E1,1.474831E2,2.3777496E1,1.5653036E1,1.0598633E1,4.8009247E1,2.7334862E0,1.5289749E1,8.160564E0,7.936056E0,1.0016384E1,3.4521465E0,1.8789444E1,1.8346588E1,0E0,0E0,0E0,0E0,0E0,0E0,0E0,0E0,0E0,0E0,0E0,0E0,0E0,0E0,0E0,0E0],"parents":[2147483647,0,0,1,1,2,2,3,3,4,4,5,5,6,6,7,7,8,8,9,9,10,10,11,11,12,12,13,13,14,14],"right_children":[2,4,6,8,10,12,14,16,18,20,22,24,26,28,30,-1,-1,-1,-1,-1,-1,-1,-1,-1,-1,-1,-1,-1,-1,-1,-1],"split_conditions":[4E0,1E0,2.42E2,1E0,4.629E3,2E0,6E0,1E0,5E0,2E0,1.5E1,1.02E2,3.7E1,4E0,4E0,-1.1436232E-1,2.840364E-2,5.459963E-2,8.9984275E-2,-5.1772125E-2,4.54917E-2,-4.3904405E-2,-1.7891736E-1,1.8183488E-2,-1.2314037E-1,4.7715556E-2,1.076323E-1,-4.549458E-2,2.7743075E-2,-1.006312E-1,-5.372813E-2],"split_indices":[2,11,3,14,3,9,2,13,14,14,13,2,2,14,14,0,0,0,0,0,0,0,0,0,0,0,0,0,0,0,0],"split_type":[0,0,0,0,0,0,0,0,0,0,0,0,0,0,0,0,0,0,0,0,0,0,0,0,0,0,0,0,0,0,0],"sum_hessian":[1.4796002E3,6.792613E2,8.0033887E2,5.8722327E2,9.203803E1,2.8914383E2,5.1119504E2,8.624641E0,5.7859863E2,4.5407707E1,4.663033E1,2.3214563E2,5.6998207E1,1.4215402E2,3.6904102E2,7.4441314E0,1.1805104E0,3.958954E2,1.8270325E2,1.0438334E1,3.496937E1,4.255965E1,4.0706778E0,2.2800629E2,4.1393476E0,4.394713E1,1.3051081E1,8.288109E1,5.9272938E1,2.3250044E2,1.3654057E2],"tree_param":{"num_deleted":"0","num_feature":"15","num_nodes":"31","size_leaf_vector":"1"}},{"base_weights":[5.9976146E-2,4.838527E-1,-2.8687686E-1,5.907347E-1,-1.7285103E-1,-1.3136156E-2,-8.1769675E-1,-8.3239937E-1,6.147031E-1,-7.9007596E-1,5.5482354E-2,3.3202E-1,-2.0706464E-1,-1.0394155E0,-4.181496E-1,-1.0113921E-1,2.7068008E-2,7.132704E-2,3.2904487E-2,-9.635006E-2,5.1552583E-2,1.8849006E-2,-9.802758E-2,-4.4463176E-2,3.987901E-2,1.0804626E-2,-4.7483347E-2,-7.1115315E-2,-1.2319126E-1,-1.7225819E-2,-8.876132E-2],"categories":[],"categories_nodes":[],"categories_segments":[],"categories_sizes":[],"default_left":[0,0,0,0,0,0,0,0,0,0,0,0,0,0,0,0,0,0,0,0,0,0,0,0,0,0,0,0,0,0,0],"id":3,"left_children":[1,3,5,7,9,11,13,15,17,19,21,23,25,27,29,-1,-1,-1,-1,-1,-1,-1,-1,-1,-1,-1,-1,-1,-1,-1,-1],"loss_changes":[2.162559E2,4.65607E1,1.1755083E2,1.9936722E1,1.3210112E1,3.5866077E1,2.394934E1,2.219976E0,1.5550446E1,6.223687E0,9.708244E0,1.0173918E1,2.8995129E1,1.0267242E1,1.1379995E1,0E0,0E0,0E0,0E0,0E0,0E0,0E0,0E0,0E0,0E0,0E0,0E0,0E0,0E0,0E0,0E0],"parents":[2147483647,0,0,1,1,2,2,3,3,4,4,5,5,6,6,7,7,8,8,9,9,10,10,11,11,12,12,13,13,14,14],"right_children":[2,4,6,8,10,12,14,16,18,20,22,24,26,28,30,-1,-1,-1,-1,-1,-1,-1,-1,-1,-1,-1,-1,-1,-1,-1,-1],"split_conditions":[4E0,1E0,4.629E3,1E0,2E0,1E0,4E0,1E0,3E0,4E0,3.5E1,1E0,8E0,1E0,1.6E1,-1.0113921E-1,2.7068008E-2,7.132704E-2,3.2904487E-2,-9.635006E-2,5.1552583E-2,1.8849006E-2,-9.802758E-2,-4.4463176E-2,3.987901E-2,1.0804626E-2,-4.7483347E-2,-7.1115315E-2,-1.2319126E-1,-1.7225819E-2,-8.876132E-2],"split_indices":[2,11,3,14,14,0,14,13,2,6,13,10,2,11,2,0,0,0,0,0,0,0,0,0,0,0,0,0,0,0,0],"split_type":[0,0,0,0,0,0,0,0,0,0,0,0,0,0,0,0,0,0,0,0,0,0,0,0,0,0,0,0,0,0,0],"sum_hessian":[1.4689559E3,6.608995E2,8.0805646E2,5.6847723E2,9.24222E1,5.338024E2,2.7425403E2,8.857066E0,5.596202E2,2.4293217E1,6.812898E1,1.9177211E2,3.420303E2,1.7534769E2,9.890633E1,7.6920276E0,1.1650386E0,4.149452E2,1.4467497E2,2.1675995E1,2.617222E0,6.1100704E1,7.028278E0,1.4733761E1,1.7703835E2,1.5739915E2,1.8463116E2,6.655199E1,1.087957E2,6.5805984E1,3.310034E1],"tree_param":{"num_deleted":"0","num_feature":"15","num_nodes":"31","size_leaf_vector":"1"}},{"base_weights":[5.488754E-2,5.709411E-1,-1.8474121E-1,6.5398574E-1,-2.1444222E-2,2.6166663E-1,-3.9259404E-1,5.372735E-1,9.2283785E-1,4.7731173E-1,-4.476805E-1,-2.0564005E-1,3.3864778E-1,-4.6829633E-2,-6.543152E-1,1.2349838E-2,6.5465406E-2,6.629589E-2,9.9597044E-2,-4.1468248E-2,7.51462E-2,-9.52077E-3,-1.0908937E-1,-3.264087E-2,8.7232724E-2,4.596683E-4,4.5779478E-2,1.247244E-2,-5.816656E-2,-7.839926E-2,-3.4314137E-2],"categories":[],"categories_nodes":[],"categories_segments":[],"categories_sizes":[],"default_left":[0,0,0,0,0,0,0,0,0,0,0,0,0,0,0,0,0,0,0,0,0,0,0,0,0,0,0,0,0,0,0],"id":4,"left_children":[1,3,5,7,9,11,13,15,17,19,21,23,25,27,29,-1,-1,-1,-1,-1,-1,-1,-1,-1,-1,-1,-1,-1,-1,-1,-1],"loss_changes":[1.8044704E2,2.2775848E1,9.257994E1,1.2238602E1,1.2513277E1,1.1481611E1,6.1544067E1,1.3779808E1,1.6480331E0,6.949487E0,7.085789E0,6.20677E0,1.0853294E1,2.7068613E1,1.5355576E1,0E0,0E0,0E0,0E0,0E0,0E0,0E0,0E0,0E0,0E0,0E0,0E0,0E0,0E0,0E0,0E0],"parents":[2147483647,0,0,1,1,2,2,3,3,4,4,5,5,6,6,7,7,8,8,9,9,10,10,11,11,12,12,13,13,14,14],"right_children":[2,4,6,8,10,12,14,16,18,20,22,24,26,28,30,-1,-1,-1,-1,-1,-1,-1,-1,-1,-1,-1,-1,-1,-1,-1,-1],"split_conditions":[3E0,1E0,2.42E2,5E0,4.629E3,1.7E1,6E0,1E0,1E0,2E0,1E0,6E0,2E0,1E0,2E0,1.2349838E-2,6.5465406E-2,6.629589E-2,9.9597044E-2,-4.1468248E-2,7.51462E-2,-9.52077E-3,-1.0908937E-1,-3.264087E-2,8.7232724E-2,4.596683E-4,4.5779478E-2,1.247244E-2,-5.816656E-2,-7.839926E-2,-3.4314137E-2],"split_indices":[2,11,3,14,3,3,2,8,7,14,9,14,14,11,6,0,0,0,0,0,0,0,0,0,0,0,0,0,0,0,0],"split_type":[0,0,0,0,0,0,0,0,0,0,0,0,0,0,0,0,0,0,0,0,0,0,0,0,0,0,0,0,0,0,0],"sum_hessian":[1.4573512E3,4.6169128E2,9.956599E2,4.0483478E2,5.6856514E1,3.162301E2,6.794298E2,2.8438007E2,1.2045472E2,2.6144257E1,3.071226E1,4.4489506E1,2.717406E2,2.9322455E2,3.8620523E2,6.329888E1,2.2108118E2,2.8663446E1,9.1791275E1,6.025773E0,2.0118483E1,2.058174E1,1.0130518E1,4.0634296E1,3.85521E0,7.171437E1,2.0002623E2,2.2259254E2,7.0632E1,2.7152954E2,1.1467568E2],"tree_param":{"num_deleted":"0","num_feature":"15","num_nodes":"31","size_leaf_vector":"1"}},{"base_weights":[5.0564732E-2,5.3241736E-1,-1.653914E-1,6.122654E-1,-2.007804E-2,4.576067E-2,-5.365656E-1,4.9901304E-1,8.7940013E-1,-6.636186E-1,2.62528E-1,-3.1983998E-2,5.581396E-1,-7.394951E-1,-1.8693326E-1,1.1210191E-2,6.1201643E-2,1.0070733E-1,7.185734E-2,-8.630472E-2,6.352602E-2,7.0660494E-2,-1.7355187E-2,2.686947E-2,-1.748547E-2,8.6760215E-2,5.652098E-3,-4.6452206E-2,-9.6434E-2,1.1818919E-3,-6.8252586E-2],"categories":[],"categories_nodes":[],"categories_segments":[],"categories_sizes":[],"default_left":[0,0,0,0,0,0,0,0,0,0,0,0,0,0,0,0,0,0,0,0,0,0,0,0,0,0,0,0,0,0,0],"id":5,"left_children":[1,3,5,7,9,11,13,15,17,19,21,23,25,27,29,-1,-1,-1,-1,-1,-1,-1,-1,-1,-1,-1,-1,-1,-1,-1,-1],"loss_changes":[1.5063379E2,1.977475E1,7.838037E1,1.1403473E1,1.0637967E1,2.5439217E1,2.5588104E1,1.2051399E1,1.6423721E0,5.1693416E0,8.003345E0,2.389058E1,1.3010454E1,1.3715988E1,1.3256517E1,0E0,0E0,0E0,0E0,0E0,0E0,0E0,0E0,0E0,0E0,0E0,0E0,0E0,0E0,0E0,0E0],"parents":[2147483647,0,0,1,1,2,2,3,3,4,4,5,5,6,6,7,7,8,8,9,9,10,10,11,11,12,12,13,13,14,14],"right_children":[2,4,6,8,10,12,14,16,18,20,22,24,26,28,30,-1,-1,-1,-1,-1,-1,-1,-1,-1,-1,-1,-1,-1,-1,-1,-1],"split_conditions":[3E0,1E0,4.629E3,5E0,2E0,6E0,4E0,1E0,4.629E3,4E0,4.629E3,1E0,2E0,1E0,1.3E1,1.1210191E-2,6.1201643E-2,1.0070733E-1,7.185734E-2,-8.630472E-2,6.352602E-2,7.0660494E-2,-1.7355187E-2,2.686947E-2,-1.748547E-2,8.6760215E-2,5.652098E-3,-4.6452206E-2,-9.6434E-2,1.1818919E-3,-6.8252586E-2],"split_indices":[2,11,3,14,14,14,14,8,3,6,3,0,11,11,2,0,0,0,0,0,0,0,0,0,0,0,0,0,0,0,0],"split_type":[0,0,0,0,0,0,0,0,0,0,0,0,0,0,0,0,0,0,0,0,0,0,0,0,0,0,0,0,0,0,0],"sum_hessian":[1.4457341E3,4.4696872E2,9.987654E2,3.90434E2,5.6534714E1,6.371709E2,3.6159448E2,2.762045E2,1.1422951E2,1.6839708E1,3.9695007E1,5.540421E2,8.312876E1,2.2809259E2,1.3350189E2,6.2885063E1,2.1331943E2,6.0744953E1,5.348455E1,1.4889182E1,1.950525E0,1.9359808E1,2.0335197E1,1.7817758E2,3.7586456E2,5.096031E1,3.2168446E1,1.0398751E2,1.2410508E2,9.598448E1,3.7517414E1],"tree_param":{"num_deleted":"0","num_feature":"15","num_nodes":"31","size_leaf_vector":"1"}},{"base_weights":[4.6582267E-2,3.91816E-1,-2.1274082E-1,4.8395297E-1,-1.2464198E-1,1.7724904E-1,-4.1303924E-1,-7.903408E-1,5.076288E-1,1.902478E-1,-4.050904E-1,8.2982875E-2,5.6002504E-1,-2.103043E-1,-6.371197E-1,-9.565812E-2,2.5691872E-2,6.848479E-2,3.3293925E-2,-1.3355069E-1,2.7767053E-2,2.4675285E-2,-5.9794255E-2,1.1245669E-2,-1.1820028E-1,4.140939E-2,1.0075208E-1,-4.506188E-2,9.500752E-4,-6.2273717E-3,-7.115154E-2],"categories":[],"categories_nodes":[],"categories_segments":[],"categories_sizes":[],"default_left":[0,0,0,0,0,0,0,0,0,0,0,0,0,0,0,0,0,0,0,0,0,0,0,0,0,0,0,0,0,0,0],"id":6,"left_children":[1,3,5,7,9,11,13,15,17,19,21,23,25,27,29,-1,-1,-1,-1,-1,-1,-1,-1,-1,-1,-1,-1,-1,-1,-1,-1],"loss_changes":[1.2858328E2,2.9373947E1,6.414969E1,1.6179214E1,8.383322E0,1.0022198E1,2.4499733E1,1.9746222E0,1.5685806E1,6.3716516E0,6.4416904E0,8.524673E0,3.1723042E0,1.5120747E1,1.0949638E1,0E0,0E0,0E0,0E0,0E0,0E0,0E0,0E0,0E0,0E0,0E0,0E0,0E0,0E0,0E0,0E0],"parents":[2147483647,0,0,1,1,2,2,3,3,4,4,5,5,6,6,7,7,8,8,9,9,10,10,11,11,12,12,13,13,14,14],"right_children":[2,4,6,8,10,12,14,16,18,20,22,24,26,28,30,-1,-1,-1,-1,-1,-1,-1,-1,-1,-1,-1,-1,-1,-1,-1,-1],"split_conditions":[4E0,1E0,2.42E2,1E0,4.629E3,2E0,1.2E1,1E0,4.629E3,1E0,1E0,1.02E2,3.7E1,1E0,1E0,-9.565812E-2,2.5691872E-2,6.848479E-2,3.3293925E-2,-1.3355069E-1,2.7767053E-2,2.4675285E-2,-5.9794255E-2,1.1245669E-2,-1.1820028E-1,4.140939E-2,1.0075208E-1,-4.506188E-2,9.500752E-4,-6.2273717E-3,-7.115154E-2],"split_indices":[2,11,3,14,3,9,2,13,3,14,10,2,2,0,8,0,0,0,0,0,0,0,0,0,0,0,0,0,0,0,0],"split_type":[0,0,0,0,0,0,0,0,0,0,0,0,0,0,0,0,0,0,0,0,0,0,0,0,0,0,0,0,0,0,0],"sum_hessian":[1.4343191E3,6.150283E2,8.192908E2,5.2197076E2,9.3057556E1,2.780433E2,5.4124744E2,8.930431E0,5.1304034E2,4.3988518E1,4.9069035E1,2.2407675E2,5.3966545E1,2.8517566E2,2.560718E2,7.7817526E0,1.1486782E0,2.5322662E2,2.5981372E2,1.6101835E0,4.2378334E1,1.1139124E1,3.7929913E1,2.1986505E2,4.2116933E0,4.214738E1,1.1819164E1,1.3573047E2,1.4944519E2,2.9553411E1,2.2651839E2],"tree_param":{"num_deleted":"0","num_feature":"15","num_nodes":"31","size_leaf_vector":"1"}},{"base_weights":[4.2633504E-2,4.6853513E-1,-1.3765751E-1,6.810189E-1,2.8768545E-1,2.0687333E-1,-2.8994292E-1,-8.6887324E-1,7.219359E-1,-5.876863E-1,3.793095E-1,-6.587723E-1,2.4468383E-1,-3.136349E-2,-4.788705E-1,1.9495314E-3,-1.1577237E-1,4.2703472E-2,9.072587E-2,-9.461503E-2,2.3300504E-2,4.537714E-2,-6.53648E-2,8.591774E-3,-1.22032404E-1,-1.9282674E-2,3.2004755E-2,1.0886326E-2,-4.4786062E-2,-5.846199E-2,-2.2285705E-2],"categories":[],"categories_nodes":[],"categories_segments":[],"categories_sizes":[],"default_left":[0,0,0,0,0,0,0,0,0,0,0,0,0,0,0,0,0,0,0,0,0,0,0,0,0,0,0,0,0,0,0],"id":7,"left_children":[1,3,5,7,9,11,13,15,17,19,21,23,25,27,29,-1,-1,-1,-1,-1,-1,-1,-1,-1,-1,-1,-1,-1,-1,-1,-1],"loss_changes":[1.0932367E2,1.6075073E1,5.255223E1,1.29270935E1,1.8707626E1,1.0217757E1,3.389992E1,1.419126E0,9.9696045E0,6.760082E0,1.6390398E1,5.5954494E0,9.7926655E0,1.7228745E1,1.0727989E1,0E0,0E0,0E0,0E0,0E0,0E0,0E0,0E0,0E0,0E0,0E0,0E0,0E0,0E0,0E0,0E0],"parents":[2147483647,0,0,1,1,2,2,3,3,4,4,5,5,6,6,7,7,8,8,9,9,10,10,11,11,12,12,13,13,14,14],"right_children":[2,4,6,8,10,12,14,16,18,20,22,24,26,28,30,-1,-1,-1,-1,-1,-1,-1,-1,-1,-1,-1,-1,-1,-1,-1,-1],"split_conditions":[3E0,4.629E3,2.42E2,1E0,1E0,1E0,6E0,1E0,1E0,4E0,2.5E1,8.6E1,1.7E1,1E0,2E0,1.9495314E-3,-1.1577237E-1,4.2703472E-2,9.072587E-2,-9.461503E-2,2.3300504E-2,4.537714E-2,-6.53648E-2,8.591774E-3,-1.22032404E-1,-1.9282674E-2,3.2004755E-2,1.0886326E-2,-4.4786062E-2,-5.846199E-2,-2.2285705E-2],"split_indices":[2,3,3,14,8,14,2,0,8,14,13,3,3,11,6,0,0,0,0,0,0,0,0,0,0,0,0,0,0,0,0],"split_type":[0,0,0,0,0,0,0,0,0,0,0,0,0,0,0,0,0,0,0,0,0,0,0,0,0,0,0,0,0,0,0],"sum_hessian":[1.4219005E3,4.2241956E2,9.994809E2,1.9295149E2,2.2946806E2,3.0625363E2,6.932273E2,4.4424233E0,1.8850906E2,2.1229387E1,2.0823868E2,1.2129693E1,2.9412393E2,2.9315753E2,4.0006976E2,1.3188293E0,3.123594E0,7.40225E1,1.1448657E2,1.4669243E1,6.5601435E0,1.947599E2,1.3478775E1,5.5786643E0,6.5510283E0,4.299067E1,2.5113327E2,2.1987004E2,7.328748E1,2.8221426E2,1.17855484E2],"tree_param":{"num_deleted":"0","num_feature":"15","num_nodes":"31","size_leaf_vector":"1"}},{"base_weights":[3.898436E-2,4.3494272E-1,-1.23842604E-1,2.1178624E-1,6.0478944E-1,3.8049825E-2,-3.984955E-1,3.1681877E-1,-3.9803153E-1,7.764827E-1,4.2267326E-1,-3.1700615E-2,5.123451E-1,-5.7334805E-1,-9.5321566E-2,3.906506E-2,-5.7848807E-2,-5.770843E-2,7.865434E-2,5.0988376E-2,9.2124164E-2,7.738052E-2,2.1497684E-2,2.1304118E-2,-1.4365486E-2,8.022572E-2,6.918356E-3,-1.6922209E-1,-5.3129822E-2,5.392022E-4,-7.466991E-2],"categories":[],"categories_nodes":[],"categories_segments":[],"categories_sizes":[],"default_left":[0,0,0,0,0,0,0,0,0,0,0,0,0,0,0,0,0,0,0,0,0,0,0,0,0,0,0,0,0,0,0],"id":8,"left_children":[1,3,5,7,9,11,13,15,17,19,21,23,25,27,29,-1,-1,-1,-1,-1,-1,-1,-1,-1,-1,-1,-1,-1,-1,-1,-1],"loss_changes":[9.1043884E1,1.5467445E1,4.45163E1,1.1614528E1,6.9604187E0,2.0877476E1,1.962526E1,1.0377115E1,6.137608E0,4.1146545E0,8.243191E0,1.5119232E1,1.0338848E1,1.0169121E1,8.991125E0,0E0,0E0,0E0,0E0,0E0,0E0,0E0,0E0,0E0,0E0,0E0,0E0,0E0,0E0,0E0,0E0],"parents":[2147483647,0,0,1,1,2,2,3,3,4,4,5,5,6,6,7,7,8,8,9,9,10,10,11,11,12,12,13,13,14,14],"right_children":[2,4,6,8,10,12,14,16,18,20,22,24,26,28,30,-1,-1,-1,-1,-1,-1,-1,-1,-1,-1,-1,-1,-1,-1,-1,-1],"split_conditions":[3E0,3E0,4.629E3,1E0,4.629E3,6E0,4E0,2.5E1,4E0,1E0,2E0,1E0,2E0,1E0,2.5E1,3.906506E-2,-5.7848807E-2,-5.770843E-2,7.865434E-2,5.0988376E-2,9.2124164E-2,7.738052E-2,2.1497684E-2,2.1304118E-2,-1.4365486E-2,8.022572E-2,6.918356E-3,-1.6922209E-1,-5.3129822E-2,5.392022E-4,-7.466991E-2],"split_indices":[2,14,3,11,3,14,14,13,6,8,2,0,11,14,2,0,0,0,0,0,0,0,0,0,0,0,0,0,0,0,0],"split_type":[0,0,0,0,0,0,0,0,0,0,0,0,0,0,0,0,0,0,0,0,0,0,0,0,0,0,0,0,0,0,0],"sum_hessian":[1.4102954E3,4.1046533E2,9.998301E2,1.783645E2,2.3210081E2,6.29586E2,3.7024405E2,1.5256738E2,2.5797117E1,1.1778925E2,1.1431156E2,5.4968225E2,7.990378E1,2.3425098E2,1.3599309E2,1.4146509E2,1.1102299E1,2.2855291E1,2.9418252E0,4.3042065E1,7.4747185E1,4.147247E1,7.283909E1,1.7224239E2,3.7743985E2,4.7814E1,3.2089775E1,7.063392E0,2.2718758E2,1.18640976E2,1.7352108E1],"tree_param":{"num_deleted":"0","num_feature":"15","num_nodes":"31","size_leaf_vector":"1"}},{"base_weights":[3.5811067E-2,2.3207639E-1,-2.5370917E-1,4.7660506E-1,5.9366617E-2,1.8317035E-1,-3.6888152E-1,3.643847E-1,7.5680697E-1,-1.5183778E-2,5.978257E-1,-2.1025638E-1,4.8842376E-1,-1.6474573E-1,-5.004003E-1,-3.609146E-4,4.776868E-2,4.753069E-2,8.4104575E-2,2.4239723E-2,-1.9273246E-2,7.434779E-2,2.7280077E-2,-5.6334506E-3,-9.022567E-2,5.633063E-2,-6.904753E-2,2.4414312E-2,-3.0739827E-2,-2.3045508E-2,-6.038065E-2],"categories":[],"categories_nodes":[],"categories_segments":[],"categories_sizes":[],"default_left":[0,0,0,0,0,0,0,0,0,0,0,0,0,0,0,0,0,0,0,0,0,0,0,0,0,0,0,0,0,0,0],"id":9,"left_children":[1,3,5,7,9,11,13,15,17,19,21,23,25,27,29,-1,-1,-1,-1,-1,-1,-1,-1,-1,-1,-1,-1,-1,-1,-1,-1],"loss_changes":[7.965834E1,3.5252655E1,2.856876E1,1.0593246E1,1.9708511E1,1.4375013E1,1.19613495E1,1.0372791E1,1.9222145E0,1.9805006E1,2.6236668E0,5.554062E0,6.3231335E0,1.0414656E1,7.462761E0,0E0,0E0,0E0,0E0,0E0,0E0,0E0,0E0,0E0,0E0,0E0,0E0,0E0,0E0,0E0,0E0],"parents":[2147483647,0,0,1,1,2,2,3,3,4,4,5,5,6,6,7,7,8,8,9,9,10,10,11,11,12,12,13,13,14,14],"right_children":[2,4,6,8,10,12,14,16,18,20,22,24,26,28,30,-1,-1,-1,-1,-1,-1,-1,-1,-1,-1,-1,-1,-1,-1,-1,-1],"split_conditions":[1E0,3E0,1E0,5E0,6E0,9E0,1E1,1E0,1E0,2.605E3,4.629E3,1E0,9.5E1,2.605E3,2.02E2,-3.609146E-4,4.776868E-2,4.753069E-2,8.4104575E-2,2.4239723E-2,-1.9273246E-2,7.434779E-2,2.7280077E-2,-5.6334506E-3,-9.022567E-2,5.633063E-2,-6.904753E-2,2.4414312E-2,-3.0739827E-2,-2.3045508E-2,-6.038065E-2],"split_indices":[11,2,8,14,14,2,2,8,7,3,3,13,2,3,3,0,0,0,0,0,0,0,0,0,0,0,0,0,0,0,0],"split_type":[0,0,0,0,0,0,0,0,0,0,0,0,0,0,0,0,0,0,0,0,0,0,0,0,0,0,0,0,0,0,0],"sum_hessian":[1.399837E3,8.343982E2,5.6543884E2,3.4465866E2,4.8973956E2,1.1784205E2,4.4759677E2,2.4773978E2,9.691888E1,4.3103412E2,5.8705456E1,5.1621166E1,6.622088E1,1.7626349E2,2.713333E2,5.854843E1,1.8919135E2,2.3852747E1,7.306613E1,1.757285E2,2.553056E2,3.9649876E1,1.9055582E1,4.3112946E1,8.508221E0,6.275681E1,3.4640727E0,4.5405373E1,1.3085811E2,7.604471E1,1.9528859E2],"tree_param":{"num_deleted":"0","num_feature":"15","num_nodes":"31","size_leaf_vector":"1"}}]},"name":"gbtree"},"learner_model_param":{"base_score":"7.180583E-1","boost_from_average":"1","num_class":"0","num_feature":"15","num_target":"1"},"objective":{"name":"binary:logistic","reg_loss_param":{"scale_pos_weight":"1"}}},"version":[2,0,1]}