{"learner":{"attributes":{"best_iteration":"9","best_score":"0.5847721457473132"},"feature_names":["Type_Cat","Type_Dog","Age","Breed1","Gender_Male","Gender_Female","Color1","Color2","MaturitySize","FurLength","Vaccinated","Sterilized","Health","Fee","PhotoAmt"],"feature_types":["int","int","int","int","int","int","int","int","int","int","int","int","int","int","int"],"gradient_booster":{"model":{"gbtree_model_param":{"num_parallel_tree":"1","num_trees":"10"},"iteration_indptr":[0,1,2,3,4,5,6,7,8,9,10],"tree_info":[0,0,0,0,0,0,0,0,0,0],"trees":[{"base_weights":[-0E0,6.001742E-1,-4.4096E-1,3.7850747E-1,1.1942215E0,2.3155838E-1,-7.67768E-1,1.2524085E-1,7.887324E-1,1.3308687E0,2.857143E-1,5.116279E-2,1.1661631E0,-9.798658E-1,-3.3043477E-1,-1.9633028E-1,3.6949515E-2,3.4005765E-2,9.5187165E-2,1.8534032E-1,1.2134079E-1,5.5782314E-2,-1.36E-1,-5.209003E-2,3.738657E-2,1.4871795E-1,3.7623763E-2,-7.034931E-2,-1.18952624E-1,-6.696529E-2,2.892057E-2],"categories":[],"categories_nodes":[],"categories_segments":[],"categories_sizes":[],"default_left":[0,0,0,0,0,0,0,0,0,0,0,0,0,0,0,0,0,0,0,0,0,0,0,0,0,0,0,0,0,0,0],"id":0,"left_children":[1,3,5,7,9,11,13,15,17,19,21,23,25,27,29,-1,-1,-1,-1,-1,-1,-1,-1,-1,-1,-1,-1,-1,-1,-1,-1],"loss_changes":[7.173415E2,1.507172E2,3.435909E2,8.691435E1,3.8290924E1,8.622066E1,9.7233826E1,2.654859E2,2.3062592E1,1.4353638E1,1.9566803E1,7.9575516E1,2.0424133E1,4.017334E1,7.271033E1,0E0,0E0,0E0,0E0,0E0,0E0,0E0,0E0,0E0,0E0,0E0,0E0,0E0,0E0,0E0,0E0],"parents":[2147483647,0,0,1,1,2,2,3,3,4,4,5,5,6,6,7,7,8,8,9,9,10,10,11,11,12,12,13,13,14,14],"right_children":[2,4,6,8,10,12,14,16,18,20,22,24,26,28,30,-1,-1,-1,-1,-1,-1,-1,-1,-1,-1,-1,-1,-1,-1,-1,-1],"split_conditions":[4E0,5E0,2.26E2,1E0,1E0,2E0,4E0,1E0,1E0,8.65E2,1.3E1,1E0,1.85E2,4.629E3,1E0,-1.9633028E-1,3.6949515E-2,3.4005765E-2,9.5187165E-2,1.8534032E-1,1.2134079E-1,5.5782314E-2,-1.36E-1,-5.209003E-2,3.738657E-2,1.4871795E-1,3.7623763E-2,-7.034931E-2,-1.18952624E-1,-6.696529E-2,2.892057E-2],"split_indices":[2,14,3,4,11,9,14,5,8,3,14,1,3,3,4,0,0,0,0,0,0,0,0,0,0,0,0,0,0,0,0],"split_type":[0,0,0,0,0,0,0,0,0,0,0,0,0,0,0,0,0,0,0,0,0,0,0,0,0,0,0,0,0,0,0],"sum_hessian":[2.7085E3,1.147E3,1.5615E3,8.365E2,3.105E2,5.1075E2,1.05075E3,5.18E2,3.185E2,2.695E2,4.1E1,4.29E2,8.175E1,7.0675E2,3.44E2,5.35E1,4.645E2,8.575E1,2.3275E2,4.675E1,2.2275E2,3.575E1,5.25E0,1.545E2,2.745E2,5.75E1,2.425E1,3.0675E2,4E2,2.2225E2,1.2175E2],"tree_param":{"num_deleted":"0","num_feature":"15","num_nodes":"31","size_leaf_vector":"1"}},{"base_weights":[4.7394497E-5,4.7362265E-1,-4.6449733E-1,2.6993218E-1,1.0246847E0,1.7183131E-1,-8.043048E-1,-2.1392146E-1,4.669509E-1,1.1553982E0,2.3739411E-1,2.071207E-3,1.0427177E0,-9.402246E-1,-3.7456578E-1,-4.2534914E-2,5.1008057E-2,9.838678E-2,1.9059341E-2,9.6205816E-2,1.4220695E-1,4.573917E-2,-1.2102749E-1,-5.548439E-2,2.936607E-2,1.3615733E-1,2.2496197E-2,-1.00206316E-1,-9.077216E-3,-6.755361E-2,1.1095776E-2],"categories":[],"categories_nodes":[],"categories_segments":[],"categories_sizes":[],"default_left":[0,0,0,0,0,0,0,0,0,0,0,0,0,0,0,0,0,0,0,0,0,0,0,0,0,0,0,0,0,0,0],"id":1,"left_children":[1,3,5,7,9,11,13,15,17,19,21,23,25,27,29,-1,-1,-1,-1,-1,-1,-1,-1,-1,-1,-1,-1,-1,-1,-1,-1],"loss_changes":[5.951835E2,1.5009808E2,2.9544904E2,9.3473305E1,3.6895966E1,7.040822E1,5.166046E1,4.3707493E1,9.9292984E1,1.45894165E1,1.7334E1,6.504865E1,1.9950851E1,3.541046E1,3.1584688E1,0E0,0E0,0E0,0E0,0E0,0E0,0E0,0E0,0E0,0E0,0E0,0E0,0E0,0E0,0E0,0E0],"parents":[2147483647,0,0,1,1,2,2,3,3,4,4,5,5,6,6,7,7,8,8,9,9,10,10,11,11,12,12,13,13,14,14],"right_children":[2,4,6,8,10,12,14,16,18,20,22,24,26,28,30,-1,-1,-1,-1,-1,-1,-1,-1,-1,-1,-1,-1,-1,-1,-1,-1],"split_conditions":[5E0,5E0,2.26E2,1E0,1E0,2E0,5E0,1E0,4.629E3,1E0,1.3E1,1E0,1.85E2,7E0,1E0,-4.2534914E-2,5.1008057E-2,9.838678E-2,1.9059341E-2,9.6205816E-2,1.4220695E-1,4.573917E-2,-1.2102749E-1,-5.548439E-2,2.936607E-2,1.3615733E-1,2.2496197E-2,-1.00206316E-1,-9.077216E-3,-6.755361E-2,1.1095776E-2],"split_indices":[2,14,3,8,11,9,7,9,3,4,14,1,3,14,4,0,0,0,0,0,0,0,0,0,0,0,0,0,0,0,0],"split_type":[0,0,0,0,0,0,0,0,0,0,0,0,0,0,0,0,0,0,0,0,0,0,0,0,0,0,0,0,0,0,0],"sum_hessian":[2.7034177E3,1.3386874E3,1.3647303E3,9.784939E2,3.601934E2,4.7525497E2,8.8947534E2,2.8311432E2,6.953796E2,3.0850488E2,5.1688507E1,3.9856573E2,7.6689224E1,6.7484454E2,2.146308E2,2.1944353E2,6.3670784E1,2.4136145E2,4.5401816E2,1.8151318E2,1.2699172E2,4.54636E1,6.2249064E0,1.3665727E2,2.6190848E2,5.4697006E1,2.1992216E1,6.2888336E2,4.5961227E1,1.3225569E2,8.23751E1],"tree_param":{"num_deleted":"0","num_feature":"15","num_nodes":"31","size_leaf_vector":"1"}},{"base_weights":[1.5493002E-4,6.5171725E-1,-2.78114E-1,3.0748698E-1,9.421133E-1,2.524218E-1,-5.0186765E-1,-1.1748426E0,3.8624698E-1,1.528766E0,8.29298E-1,-8.558726E-2,5.668095E-1,-9.213674E-2,-7.8793204E-1,-1.5436344E-1,-5.6703683E-2,8.207065E-2,1.6636807E-2,1.1766805E-2,1.5956442E-1,4.092729E-2,9.6437715E-2,-2.3624798E-2,1.1291211E-1,-6.1564106E-2,6.456789E-2,-3.729778E-2,3.8929112E-2,-9.466272E-2,-4.682001E-2],"categories":[],"categories_nodes":[],"categories_segments":[],"categories_sizes":[],"default_left":[0,0,0,0,0,0,0,0,0,0,0,0,0,0,0,0,0,0,0,0,0,0,0,0,0,0,0,0,0,0,0],"id":2,"left_children":[1,3,5,7,9,11,13,15,17,19,21,23,25,27,29,-1,-1,-1,-1,-1,-1,-1,-1,-1,-1,-1,-1,-1,-1,-1,-1],"loss_changes":[4.886164E2,8.033121E1,2.2430013E2,4.3712585E1,2.7652771E1,5.964777E1,1.5564868E2,3.3704872E0,3.3545765E1,6.351532E0,2.0523132E1,4.9887875E1,2.7508835E1,7.4149826E1,3.924655E1,0E0,0E0,0E0,0E0,0E0,0E0,0E0,0E0,0E0,0E0,0E0,0E0,0E0,0E0,0E0,0E0],"parents":[2147483647,0,0,1,1,2,2,3,3,4,4,5,5,6,6,7,7,8,8,9,9,10,10,11,11,12,12,13,13,14,14],"right_children":[2,4,6,8,10,12,14,16,18,20,22,24,26,28,30,-1,-1,-1,-1,-1,-1,-1,-1,-1,-1,-1,-1,-1,-1,-1,-1],"split_conditions":[3E0,3E0,2.26E2,1E0,8.65E2,2E0,6E0,1E0,4.629E3,1E0,1E0,2E0,1E0,1E0,1E0,-1.5436344E-1,-5.6703683E-2,8.207065E-2,1.6636807E-2,1.1766805E-2,1.5956442E-1,4.092729E-2,9.6437715E-2,-2.3624798E-2,1.1291211E-1,-6.1564106E-2,6.456789E-2,-3.729778E-2,3.8929112E-2,-9.466272E-2,-4.682001E-2],"split_indices":[2,14,3,14,3,10,2,1,3,2,8,8,14,4,4,0,0,0,0,0,0,0,0,0,0,0,0,0,0,0,0],"split_type":[0,0,0,0,0,0,0,0,0,0,0,0,0,0,0,0,0,0,0,0,0,0,0,0,0,0,0,0,0,0,0],"sum_hessian":[2.6929297E3,8.0550653E2,1.8874231E3,3.695305E2,4.3597604E2,5.5985034E2,1.3275728E3,1.7941406E1,3.5158908E2,6.829305E1,3.6768298E2,2.701406E2,2.8970975E2,5.463525E2,7.812203E2,1.0207955E1,7.733452E0,1.17227104E2,2.3436197E2,3.2151098E0,6.507794E1,9.045268E1,2.7723032E2,2.4104874E2,2.909185E1,1.7689766E1,2.7202E2,3.452033E2,2.0114917E2,5.207777E2,2.6044257E2],"tree_param":{"num_deleted":"0","num_feature":"15","num_nodes":"31","size_leaf_vector":"1"}},{"base_weights":[2.0571478E-4,4.548473E-1,-3.3380336E-1,1.2983909E-1,7.246397E-1,1.6319329E-1,-5.770843E-1,-1.2316716E0,2.1060756E-1,5.124127E-1,1.0434089E0,1.6277848E-2,9.3689126E-1,-7.6293665E-1,-1.964965E-1,-1.3646422E-1,7.330013E-2,4.896592E-3,7.634442E-2,-1.9419308E-1,7.274964E-2,8.5253395E-2,1.26328E-1,-3.5048902E-2,3.3624586E-2,1.20485105E-1,2.9314864E-2,-5.1968027E-2,-9.4896935E-2,2.0822017E-2,-5.4659303E-2],"categories":[],"categories_nodes":[],"categories_segments":[],"categories_sizes":[],"default_left":[0,0,0,0,0,0,0,0,0,0,0,0,0,0,0,0,0,0,0,0,0,0,0,0,0,0,0,0,0,0,0],"id":3,"left_children":[1,3,5,7,9,11,13,15,17,19,21,23,25,27,29,-1,-1,-1,-1,-1,-1,-1,-1,-1,-1,-1,-1,-1,-1,-1,-1],"loss_changes":[4.0726074E2,9.9502106E1,1.8702943E2,5.7048588E1,4.1437927E1,5.782737E1,7.328519E1,8.593563E0,4.3602615E1,1.9906493E2,9.289276E0,5.0425274E1,1.3651909E1,3.1058289E1,4.8569824E1,0E0,0E0,0E0,0E0,0E0,0E0,0E0,0E0,0E0,0E0,0E0,0E0,0E0,0E0,0E0,0E0],"parents":[2147483647,0,0,1,1,2,2,3,3,4,4,5,5,6,6,7,7,8,8,9,9,10,10,11,11,12,12,13,13,14,14],"right_children":[2,4,6,8,10,12,14,16,18,20,22,24,26,28,30,-1,-1,-1,-1,-1,-1,-1,-1,-1,-1,-1,-1,-1,-1,-1,-1],"split_conditions":[4E0,3E0,2.26E2,1E0,1E0,2E0,4E0,2E0,5E0,1E0,1E0,2E0,1.85E2,4.629E3,9E0,-1.3646422E-1,7.330013E-2,4.896592E-3,7.634442E-2,-1.9419308E-1,7.274964E-2,8.5253395E-2,1.26328E-1,-3.5048902E-2,3.3624586E-2,1.20485105E-1,2.9314864E-2,-5.1968027E-2,-9.4896935E-2,2.0822017E-2,-5.4659303E-2],"split_indices":[2,14,3,14,4,9,14,13,7,5,6,10,3,3,2,0,0,0,0,0,0,0,0,0,0,0,0,0,0,0,0],"split_type":[0,0,0,0,0,0,0,0,0,0,0,0,0,0,0,0,0,0,0,0,0,0,0,0,0,0,0,0,0,0,0],"sum_hessian":[2.679916E3,1.1348439E3,1.545072E3,5.154196E2,6.1942426E2,5.0787253E2,1.0371995E3,2.8065826E1,4.873538E2,3.7341986E2,2.4600441E2,4.2768216E2,8.019038E1,6.9621313E2,3.4098636E2,2.6572767E1,1.4930582E0,3.7793848E2,1.09415306E2,2.9440647E1,3.4397922E2,1.3429636E2,1.1170806E2,1.9922403E2,2.2845813E2,5.6006054E1,2.418432E1,3.033483E2,3.9286484E2,1.5834383E2,1.8264252E2],"tree_param":{"num_deleted":"0","num_feature":"15","num_nodes":"31","size_leaf_vector":"1"}},{"base_weights":[2.2836166E-4,5.4965377E-1,-2.3363435E-1,2.6376486E-1,7.9530036E-1,-4.548951E-1,1.6806073E-1,-2.1003005E-1,4.381492E-1,1.0356184E0,5.477682E-1,-6.713396E-1,-5.0112672E-2,4.897255E-1,-1.09163806E-1,1.9376619E-2,-9.50346E-2,5.5334326E-2,-5.466898E-2,6.329975E-2,1.2906805E-1,2.1750495E-2,1.1196672E-1,-1.7695956E-1,-3.5107397E-2,-2.4556544E-2,6.413928E-2,-7.458407E-2,5.6519587E-2,1.6301785E-2,-4.4175375E-2],"categories":[],"categories_nodes":[],"categories_segments":[],"categories_sizes":[],"default_left":[0,0,0,0,0,0,0,0,0,0,0,0,0,0,0,0,0,0,0,0,0,0,0,0,0,0,0,0,0,0,0],"id":4,"left_children":[1,3,5,7,9,11,13,15,17,19,21,23,25,27,29,-1,-1,-1,-1,-1,-1,-1,-1,-1,-1,-1,-1,-1,-1,-1,-1],"loss_changes":[3.4228604E2,5.564586E1,1.6615276E2,3.0584974E1,2.4850525E1,1.0555362E2,5.9300503E1,3.0068232E1,3.0944244E1,2.1331894E1,3.9913128E1,2.7555353E2,5.7055004E1,2.911721E1,3.2450043E1,0E0,0E0,0E0,0E0,0E0,0E0,0E0,0E0,0E0,0E0,0E0,0E0,0E0,0E0,0E0,0E0],"parents":[2147483647,0,0,1,1,2,2,3,3,4,4,5,5,6,6,7,7,8,8,9,9,10,10,11,11,12,12,13,13,14,14],"right_children":[2,4,6,8,10,12,14,16,18,20,22,24,26,28,30,-1,-1,-1,-1,-1,-1,-1,-1,-1,-1,-1,-1,-1,-1,-1,-1],"split_conditions":[3E0,3E0,1E0,1E0,4.629E3,1E0,2.26E2,4.629E3,1E0,1E0,1E0,1E0,5E0,1E0,1E1,1.9376619E-2,-9.50346E-2,5.5334326E-2,-5.466898E-2,6.329975E-2,1.2906805E-1,2.1750495E-2,1.1196672E-1,-1.7695956E-1,-3.5107397E-2,-2.4556544E-2,6.413928E-2,-7.458407E-2,5.6519587E-2,1.6301785E-2,-4.4175375E-2],"split_indices":[2,14,9,8,3,4,3,3,11,8,9,5,14,14,2,0,0,0,0,0,0,0,0,0,0,0,0,0,0,0,0],"split_type":[0,0,0,0,0,0,0,0,0,0,0,0,0,0,0,0,0,0,0,0,0,0,0,0,0,0,0,0,0,0,0],"sum_hessian":[2.66191E3,7.94351E2,1.867559E3,3.6806387E2,4.2628714E2,1.2041561E3,6.634029E2,9.8967896E1,2.6909598E2,2.1467998E2,2.1160716E2,7.841816E2,4.1997452E2,3.067329E2,3.5666998E2,6.451646E1,3.445144E1,2.4130885E2,2.778712E1,8.460727E1,1.3007271E2,1.350171E2,7.659006E1,1.7602625E2,6.0815533E2,3.2793045E2,9.204407E1,1.7145874E1,2.8958704E2,1.9642857E2,1.6024141E2],"tree_param":{"num_deleted":"0","num_feature":"15","num_nodes":"31","size_leaf_vector":"1"}},{"base_weights":[1.9320453E-4,3.364882E-1,-3.3061463E-1,1.7525549E-1,7.853556E-1,1.0689576E-1,-5.686431E-1,-3.845468E-2,5.294314E-1,9.040029E-1,9.296218E-2,-2.3415977E-2,8.0005014E-1,-6.900375E-1,-1.9046703E-1,-1.7487398E-1,1.636271E-2,3.8198162E-2,8.884739E-2,1.359994E-1,8.032539E-2,6.392052E-2,-3.9069884E-2,-4.910416E-2,2.2125E-2,1.08688764E-1,1.0295801E-2,-8.902003E-2,-4.841811E-2,-4.348085E-2,1.9399723E-2],"categories":[],"categories_nodes":[],"categories_segments":[],"categories_sizes":[],"default_left":[0,0,0,0,0,0,0,0,0,0,0,0,0,0,0,0,0,0,0,0,0,0,0,0,0,0,0,0,0,0,0],"id":5,"left_children":[1,3,5,7,9,11,13,15,17,19,21,23,25,27,29,-1,-1,-1,-1,-1,-1,-1,-1,-1,-1,-1,-1,-1,-1,-1,-1],"loss_changes":[2.9437076E2,9.482498E1,1.3897398E2,7.3188385E1,2.8379196E1,4.2548737E1,3.9536224E1,2.0897615E2,1.8923096E1,1.2491104E1,1.3935293E1,4.55657E1,1.4792393E1,2.6505127E1,1.9938286E1,0E0,0E0,0E0,0E0,0E0,0E0,0E0,0E0,0E0,0E0,0E0,0E0,0E0,0E0,0E0,0E0],"parents":[2147483647,0,0,1,1,2,2,3,3,4,4,5,5,6,6,7,7,8,8,9,9,10,10,11,11,12,12,13,13,14,14],"right_children":[2,4,6,8,10,12,14,16,18,20,22,24,26,28,30,-1,-1,-1,-1,-1,-1,-1,-1,-1,-1,-1,-1,-1,-1,-1,-1],"split_conditions":[5E0,5E0,2.26E2,1E0,1E0,2E0,5E0,1E0,5E0,8.65E2,4.629E3,1E0,1.85E2,1E0,1E0,-1.7487398E-1,1.636271E-2,3.8198162E-2,8.884739E-2,1.359994E-1,8.032539E-2,6.392052E-2,-3.9069884E-2,-4.910416E-2,2.2125E-2,1.08688764E-1,1.0295801E-2,-8.902003E-2,-4.841811E-2,-4.348085E-2,1.9399723E-2],"split_indices":[2,14,3,4,11,9,7,5,7,3,3,1,3,5,4,0,0,0,0,0,0,0,0,0,0,0,0,0,0,0,0],"split_type":[0,0,0,0,0,0,0,0,0,0,0,0,0,0,0,0,0,0,0,0,0,0,0,0,0,0,0,0,0,0,0],"sum_hessian":[2.644053E3,1.3111438E3,1.332909E3,9.6566754E2,3.4547626E2,4.6984924E2,8.630598E2,6.0281793E2,3.6284964E2,2.9467557E2,5.0800682E1,3.9630994E2,7.3539314E1,6.527141E2,2.1034572E2,6.2891624E1,5.399263E2,2.5868008E2,1.0416957E2,5.1063416E1,2.4361215E2,2.3705864E1,2.709482E1,1.3578313E2,2.6052682E2,5.1704796E1,2.1834518E1,3.2924808E2,3.2346603E2,1.2852946E2,8.1816246E1],"tree_param":{"num_deleted":"0","num_feature":"15","num_nodes":"31","size_leaf_vector":"1"}},{"base_weights":[2.1281779E-4,4.6991834E-1,-1.9861847E-1,7.58432E-1,2.528685E-1,-4.0054423E-1,1.4698917E-1,-1.0919076E0,8.2967323E-1,-7.4797475E-1,3.9785263E-1,-1.6631508E0,-9.702928E-2,4.030623E-1,-3.3645874E-1,-1.2968425E-1,2.3113291E-3,4.5740183E-2,1.1124303E-1,-8.8285625E-2,2.0755112E-2,4.9512874E-2,-5.1882792E-2,-1.8420935E-1,-1.5764892E-1,4.446463E-2,-3.0225098E-2,2.930589E-2,1.1981415E-1,-5.4779496E-2,1.693233E-2],"categories":[],"categories_nodes":[],"categories_segments":[],"categories_sizes":[],"default_left":[0,0,0,0,0,0,0,0,0,0,0,0,0,0,0,0,0,0,0,0,0,0,0,0,0,0,0,0,0,0,0],"id":6,"left_children":[1,3,5,7,9,11,13,15,17,19,21,23,25,27,29,-1,-1,-1,-1,-1,-1,-1,-1,-1,-1,-1,-1,-1,-1,-1,-1],"loss_changes":[2.4500946E2,4.8668716E1,1.2869061E2,4.4996887E1,6.5126656E1,4.457967E2,8.437884E1,2.9622345E0,3.3453568E1,7.5138226E0,3.511309E1,5.923462E-1,1.0454445E2,3.859648E1,2.5337767E1,0E0,0E0,0E0,0E0,0E0,0E0,0E0,0E0,0E0,0E0,0E0,0E0,0E0,0E0,0E0,0E0],"parents":[2147483647,0,0,1,1,2,2,3,3,4,4,5,5,6,6,7,7,8,8,9,9,10,10,11,11,12,12,13,13,14,14],"right_children":[2,4,6,8,10,12,14,16,18,20,22,24,26,28,30,-1,-1,-1,-1,-1,-1,-1,-1,-1,-1,-1,-1,-1,-1,-1,-1],"split_conditions":[3E0,4.629E3,1E0,1E0,1E0,1E0,4.629E3,1E0,1E0,1E0,1E0,2.26E2,2.26E2,6E0,4E0,-1.2968425E-1,2.3113291E-3,4.5740183E-2,1.1124303E-1,-8.8285625E-2,2.0755112E-2,4.9512874E-2,-5.1882792E-2,-1.8420935E-1,-1.5764892E-1,4.446463E-2,-3.0225098E-2,2.930589E-2,1.1981415E-1,-5.4779496E-2,1.693233E-2],"split_indices":[2,3,4,14,8,5,3,1,8,9,11,3,3,14,14,0,0,0,0,0,0,0,0,0,0,0,0,0,0,0,0],"split_type":[0,0,0,0,0,0,0,0,0,0,0,0,0,0,0,0,0,0,0,0,0,0,0,0,0,0,0,0,0,0,0],"sum_hessian":[2.621449E3,7.792465E2,1.8422024E3,3.334773E2,4.457692E2,1.1627131E3,6.7948926E2,1.1832277E1,3.2164502E2,5.5877934E1,3.8989124E2,2.244661E2,9.38247E2,4.4431195E2,2.351773E2,9.857463E0,1.9748151E0,1.3997496E2,1.8167007E2,4.9032578E1,6.845358E0,3.5290195E2,3.6989307E1,6.662976E1,1.5783633E2,2.5747748E2,6.8076953E2,3.915127E2,5.279925E1,1.6581148E2,6.936582E1],"tree_param":{"num_deleted":"0","num_feature":"15","num_nodes":"31","size_leaf_vector":"1"}},{"base_weights":[-2.4304534E-5,2.865333E-1,-2.8217044E-1,1.4318609E-1,6.936159E-1,-4.9755183E-1,8.6599946E-2,-4.5164257E-2,4.5625728E-1,8.0177915E-1,7.848344E-2,-2.669819E-1,-8.166627E-1,-3.484184E-2,6.724001E-1,-1.600889E-1,1.306327E-2,1.0886178E-2,5.8919914E-2,6.7171305E-2,1.13076724E-1,2.759696E-2,-1.19578436E-1,-5.4738443E-2,3.0316592E-3,-9.423066E-2,-5.1912364E-2,-2.4365246E-2,2.7783502E-2,9.8411255E-2,1.8094474E-2],"categories":[],"categories_nodes":[],"categories_segments":[],"categories_sizes":[],"default_left":[0,0,0,0,0,0,0,0,0,0,0,0,0,0,0,0,0,0,0,0,0,0,0,0,0,0,0,0,0,0,0],"id":7,"left_children":[1,3,5,7,9,11,13,15,17,19,21,23,25,27,29,-1,-1,-1,-1,-1,-1,-1,-1,-1,-1,-1,-1,-1,-1,-1,-1],"loss_changes":[2.1016064E2,7.515394E1,1.04072334E2,5.6334686E1,2.2265182E1,6.0629578E1,3.443913E1,1.635346E2,1.6507507E1,1.1448227E1,1.3237847E1,4.016303E1,1.2460785E1,2.6291641E1,1.255505E1,0E0,0E0,0E0,0E0,0E0,0E0,0E0,0E0,0E0,0E0,0E0,0E0,0E0,0E0,0E0,0E0],"parents":[2147483647,0,0,1,1,2,2,3,3,4,4,5,5,6,6,7,7,8,8,9,9,10,10,11,11,12,12,13,13,14,14],"right_children":[2,4,6,8,10,12,14,16,18,20,22,24,26,28,30,-1,-1,-1,-1,-1,-1,-1,-1,-1,-1,-1,-1,-1,-1,-1,-1],"split_conditions":[5E0,5E0,1E0,1E0,1E0,4.629E3,2E0,1E0,1E0,8E0,1.3E1,2E0,4E0,1E0,1.85E2,-1.600889E-1,1.306327E-2,1.0886178E-2,5.8919914E-2,6.7171305E-2,1.13076724E-1,2.759696E-2,-1.19578436E-1,-5.4738443E-2,3.0316592E-3,-9.423066E-2,-5.1912364E-2,-2.4365246E-2,2.7783502E-2,9.8411255E-2,1.8094474E-2],"split_indices":[2,14,9,4,11,3,9,5,8,14,14,10,14,4,3,0,0,0,0,0,0,0,0,0,0,0,0,0,0,0,0],"split_type":[0,0,0,0,0,0,0,0,0,0,0,0,0,0,0,0,0,0,0,0,0,0,0,0,0,0,0,0,0,0,0],"sum_hessian":[2.5973538E3,1.2885952E3,1.3087585E3,9.54009E2,3.3458624E2,8.259884E2,4.827701E2,5.961863E2,3.578227E2,2.8429346E2,5.0292805E1,4.8058435E2,3.4540405E2,4.006518E2,8.211829E1,5.9706234E1,5.3648004E2,9.953714E1,2.5828555E2,2.0592308E2,7.837036E1,4.422261E1,6.070196E0,2.4688708E2,2.3369727E2,2.4132928E2,1.04074776E2,2.4035777E2,1.6029404E2,4.963449E1,3.2483803E1],"tree_param":{"num_deleted":"0","num_feature":"15","num_nodes":"31","size_leaf_vector":"1"}},{"base_weights":[-1.1486116E-4,4.0352157E-1,-1.699554E-1,6.789072E-1,2.0034488E-1,-3.4644362E-1,1.466294E-1,-9.980684E-1,7.4336874E-1,-6.892939E-1,3.3087996E-1,-5.180021E-1,-3.258828E-2,-2.3076722E-1,2.8540477E-1,-1.1930658E-1,2.9243254E-3,4.068143E-2,1.0075833E-1,-8.81771E-2,-8.494445E-3,7.519434E-2,1.2122604E-2,-1.4811504E-1,-2.6398892E-2,-1.9053323E-2,5.3069185E-2,3.8193624E-2,-3.701753E-2,5.6259133E-2,4.897785E-3],"categories":[],"categories_nodes":[],"categories_segments":[],"categories_sizes":[],"default_left":[0,0,0,0,0,0,0,0,0,0,0,0,0,0,0,0,0,0,0,0,0,0,0,0,0,0,0,0,0,0,0],"id":8,"left_children":[1,3,5,7,9,11,13,15,17,19,21,23,25,27,29,-1,-1,-1,-1,-1,-1,-1,-1,-1,-1,-1,-1,-1,-1,-1,-1],"loss_changes":[1.7655966E2,4.254165E1,1.01334564E2,3.5703094E1,5.1364494E1,6.266838E1,3.408466E1,2.518587E0,2.7335327E1,6.516876E0,3.386691E1,1.8375058E2,3.68022E1,1.5105041E1,3.1124733E1,0E0,0E0,0E0,0E0,0E0,0E0,0E0,0E0,0E0,0E0,0E0,0E0,0E0,0E0,0E0,0E0],"parents":[2147483647,0,0,1,1,2,2,3,3,4,4,5,5,6,6,7,7,8,8,9,9,10,10,11,11,12,12,13,13,14,14],"right_children":[2,4,6,8,10,12,14,16,18,20,22,24,26,28,30,-1,-1,-1,-1,-1,-1,-1,-1,-1,-1,-1,-1,-1,-1,-1,-1],"split_conditions":[3E0,4.629E3,1E0,1E0,1E0,1E0,2E0,1E0,1E0,4E0,2E0,1E0,5E0,8.7E1,1E1,-1.1930658E-1,2.9243254E-3,4.068143E-2,1.0075833E-1,-8.81771E-2,-8.494445E-3,7.519434E-2,1.2122604E-2,-1.4811504E-1,-2.6398892E-2,-1.9053323E-2,5.3069185E-2,3.8193624E-2,-3.701753E-2,5.6259133E-2,4.897785E-3],"split_indices":[2,3,9,14,8,4,14,1,8,14,2,5,14,3,2,0,0,0,0,0,0,0,0,0,0,0,0,0,0,0,0],"split_type":[0,0,0,0,0,0,0,0,0,0,0,0,0,0,0,0,0,0,0,0,0,0,0,0,0,0,0,0,0,0,0],"sum_hessian":[2.573489E3,7.6175525E2,1.8117338E3,3.2241394E2,4.3934128E2,1.1631898E3,6.48544E2,1.1398455E1,3.110155E2,5.5667656E1,3.836736E2,7.5166626E2,4.1152353E2,1.7418602E2,4.74358E2,9.444428E0,1.9540254E0,1.3789964E2,1.7311584E2,4.1872723E1,1.3794932E1,1.2667543E2,2.5699817E2,1.5585936E2,5.958069E2,3.219186E2,8.960492E1,3.1963892E1,1.4222212E2,2.1772176E2,2.5663623E2],"tree_param":{"num_deleted":"0","num_feature":"15","num_nodes":"31","size_leaf_vector":"1"}},{"base_weights":[-2.3302404E-4,2.2139709E-1,-2.647364E-1,9.036336E-2,5.981148E-1,1.0105793E-1,-4.6281618E-1,-2.4982631E-1,2.3055857E-1,7.051351E-1,7.371301E-2,-8.500926E-3,9.032106E-1,-5.798496E-1,-1.4611322E-1,-1.3426279E-1,-1.7975925E-2,6.6242695E-2,-7.981784E-4,5.462102E-2,9.3449585E-2,-1.20338565E-2,1.1201848E-1,-1.1714693E-2,6.920962E-2,7.241093E-2,1.2453633E-1,-6.280773E-2,2.3986256E-2,-4.2402465E-2,1.8704847E-2],"categories":[],"categories_nodes":[],"categories_segments":[],"categories_sizes":[],"default_left":[0,0,0,0,0,0,0,0,0,0,0,0,0,0,0,0,0,0,0,0,0,0,0,0,0,0,0,0,0,0,0],"id":9,"left_children":[1,3,5,7,9,11,13,15,17,19,21,23,25,27,29,-1,-1,-1,-1,-1,-1,-1,-1,-1,-1,-1,-1,-1,-1,-1,-1],"loss_changes":[1.4966753E2,6.851728E1,8.438369E1,4.92682E1,2.0057007E1,3.6013607E1,2.7908981E1,2.2852438E1,7.533365E1,1.03324585E1,1.2694074E1,2.7594404E1,2.1158142E0,2.1938675E1,1.9071877E1,0E0,0E0,0E0,0E0,0E0,0E0,0E0,0E0,0E0,0E0,0E0,0E0,0E0,0E0,0E0,0E0],"parents":[2147483647,0,0,1,1,2,2,3,3,4,4,5,5,6,6,7,7,8,8,9,9,10,10,11,11,12,12,13,13,14,14],"right_children":[2,4,6,8,10,12,14,16,18,20,22,24,26,28,30,-1,-1,-1,-1,-1,-1,-1,-1,-1,-1,-1,-1,-1,-1,-1,-1],"split_conditions":[6E0,5E0,2.03E2,1E0,1E0,2E0,2E0,1E0,4.629E3,1E0,3E0,2E0,4.7E1,7E0,1E0,-1.3426279E-1,-1.7975925E-2,6.6242695E-2,-7.981784E-4,5.462102E-2,9.3449585E-2,-1.20338565E-2,1.1201848E-1,-1.1714693E-2,6.920962E-2,7.241093E-2,1.2453633E-1,-6.280773E-2,2.3986256E-2,-4.2402465E-2,1.8704847E-2],"split_indices":[2,14,3,8,11,9,6,14,3,4,6,8,2,14,5,0,0,0,0,0,0,0,0,0,0,0,0,0,0,0,0],"split_type":[0,0,0,0,0,0,0,0,0,0,0,0,0,0,0,0,0,0,0,0,0,0,0,0,0,0,0,0,0,0,0],"sum_hessian":[2.5510986E3,1.3881317E3,1.1629669E3,1.030821E3,3.5731067E2,4.0870337E2,7.5426355E2,3.0060593E2,7.302151E2,2.9646353E2,6.084716E1,3.6046066E2,4.8242695E1,5.5013684E2,2.0412668E2,1.7018276E1,2.8358765E2,2.5918796E2,4.7102713E2,1.7711871E2,1.1934481E2,5.2075577E1,8.771583E0,3.1278754E2,4.767314E1,3.371222E1,1.4530475E1,5.197889E2,3.0347996E1,1.11142715E2,9.298397E1],"tree_param":{"num_deleted":"0","num_feature":"15","num_nodes":"31","size_leaf_vector":"1"}}]},"name":"gbtree"},"learner_model_param":{"base_score":"5E-1","boost_from_average":"1","num_class":"0","num_feature":"15","num_target":"1"},"objective":{"name":"binary:logistic","reg_loss_param":{"scale_pos_weight":"1"}}},"version":[2,0,1]}